<?xml version="1.0"?>
<opencv_storage>
<cascade>
  <stageType>BOOST</stageType>
  <featureType>HAAR</featureType>
  <height>24</height>
  <width>24</width>
  <stageParams>
    <boostType>GAB</boostType>
    <minHitRate>9.9500000476837158e-01</minHitRate>
    <maxFalseAlarm>5.0000000000000000e-01</maxFalseAlarm>
    <weightTrimRate>9.4999999999999996e-01</weightTrimRate>
    <maxDepth>1</maxDepth>
    <maxWeakCount>100</maxWeakCount></stageParams>
  <featureParams>
    <maxCatCount>0</maxCatCount>
    <featSize>1</featSize>
    <mode>BASIC</mode></featureParams>
  <stageNum>13</stageNum>
  <stages>
    <!-- stage 0 -->
    <_>
      <maxWeakCount>2</maxWeakCount>
      <stageThreshold>-2.4575203657150269e-01</stageThreshold>
      <weakClassifiers>
        <_>
          <internalNodes>
            0 -1 22 -1.5628736466169357e-02</internalNodes>
          <leafValues>
            8.9361703395843506e-01 -9.7916668653488159e-01</leafValues></_>
        <_>
          <internalNodes>
            0 -1 6 -3.5192955285310745e-02</internalNodes>
          <leafValues>
            7.3341464996337891e-01 -1.</leafValues></_></weakClassifiers></_>
    <!-- stage 1 -->
    <_>
      <maxWeakCount>2</maxWeakCount>
      <stageThreshold>-1.8785980343818665e-01</stageThreshold>
      <weakClassifiers>
        <_>
          <internalNodes>
            0 -1 22 -2.2414177656173706e-02</internalNodes>
          <leafValues>
            9.5402300357818604e-01 -9.0291261672973633e-01</leafValues></_>
        <_>
          <internalNodes>
            0 -1 13 1.5299910679459572e-02</internalNodes>
          <leafValues>
            -9.4040226936340332e-01 7.1505284309387207e-01</leafValues></_></weakClassifiers></_>
    <!-- stage 2 -->
    <_>
      <maxWeakCount>2</maxWeakCount>
      <stageThreshold>-1.5234415233135223e-01</stageThreshold>
      <weakClassifiers>
        <_>
          <internalNodes>
            0 -1 24 -2.2269736975431442e-02</internalNodes>
          <leafValues>
            6.4150941371917725e-01 -9.2857140302658081e-01</leafValues></_>
        <_>
          <internalNodes>
            0 -1 3 -3.2772704958915710e-02</internalNodes>
          <leafValues>
            8.4188377857208252e-01 -7.9385358095169067e-01</leafValues></_></weakClassifiers></_>
    <!-- stage 3 -->
    <_>
      <maxWeakCount>2</maxWeakCount>
      <stageThreshold>-4.9386984109878540e-01</stageThreshold>
      <weakClassifiers>
        <_>
          <internalNodes>
            0 -1 8 -5.1270879805088043e-02</internalNodes>
          <leafValues>
            6.9523811340332031e-01 -9.7647058963775635e-01</leafValues></_>
        <_>
          <internalNodes>
            0 -1 19 -1.0682842135429382e-01</internalNodes>
          <leafValues>
            4.8260074853897095e-01 -1.</leafValues></_></weakClassifiers></_>
    <!-- stage 4 -->
    <_>
      <maxWeakCount>1</maxWeakCount>
      <stageThreshold>8.9473682641983032e-01</stageThreshold>
      <weakClassifiers>
        <_>
          <internalNodes>
            0 -1 26 -9.7993269562721252e-02</internalNodes>
          <leafValues>
            -1. 8.9473682641983032e-01</leafValues></_></weakClassifiers></_>
    <!-- stage 5 -->
    <_>
      <maxWeakCount>2</maxWeakCount>
      <stageThreshold>-2.6821315288543701e-01</stageThreshold>
      <weakClassifiers>
        <_>
          <internalNodes>
            0 -1 20 1.2612468563020229e-03</internalNodes>
          <leafValues>
            -8.4782606363296509e-01 6.9387757778167725e-01</leafValues></_>
        <_>
          <internalNodes>
            0 -1 1 4.3627057224512100e-02</internalNodes>
          <leafValues>
            -9.6209067106246948e-01 5.8862584829330444e-01</leafValues></_></weakClassifiers></_>
    <!-- stage 6 -->
    <_>
      <maxWeakCount>3</maxWeakCount>
      <stageThreshold>-7.9714477062225342e-01</stageThreshold>
      <weakClassifiers>
        <_>
          <internalNodes>
            0 -1 25 1.9438531249761581e-02</internalNodes>
          <leafValues>
            -6.7676764726638794e-01 6.2637364864349365e-01</leafValues></_>
        <_>
          <internalNodes>
            0 -1 10 6.4389863982796669e-03</internalNodes>
          <leafValues>
            -6.3837718963623047e-01 7.7992945909500122e-01</leafValues></_>
        <_>
          <internalNodes>
            0 -1 9 -1.6056798398494720e-02</internalNodes>
          <leafValues>
            5.1800012588500977e-01 -9.4363808631896973e-01</leafValues></_></weakClassifiers></_>
    <!-- stage 7 -->
    <_>
      <maxWeakCount>1</maxWeakCount>
      <stageThreshold>4.3999999761581421e-01</stageThreshold>
      <weakClassifiers>
        <_>
          <internalNodes>
            0 -1 0 -1.6418269276618958e-01</internalNodes>
          <leafValues>
            4.3999999761581421e-01 -1.</leafValues></_></weakClassifiers></_>
    <!-- stage 8 -->
    <_>
      <maxWeakCount>2</maxWeakCount>
      <stageThreshold>-3.5509261488914490e-01</stageThreshold>
      <weakClassifiers>
        <_>
          <internalNodes>
            0 -1 7 -1.7994552850723267e-02</internalNodes>
          <leafValues>
            5.7142859697341919e-01 -9.4871795177459717e-01</leafValues></_>
        <_>
          <internalNodes>
            0 -1 18 9.4487704336643219e-03</internalNodes>
          <leafValues>
            -7.8135550022125244e-01 5.9362530708312988e-01</leafValues></_></weakClassifiers></_>
    <!-- stage 9 -->
    <_>
      <maxWeakCount>2</maxWeakCount>
      <stageThreshold>-5.8531422168016434e-02</stageThreshold>
      <weakClassifiers>
        <_>
          <internalNodes>
            0 -1 12 -6.3221580348908901e-03</internalNodes>
          <leafValues>
            7.8666669130325317e-01 -6.0000002384185791e-01</leafValues></_>
        <_>
          <internalNodes>
            0 -1 4 -2.1651133894920349e-02</internalNodes>
          <leafValues>
            -8.4519809484481812e-01 5.6107670068740845e-01</leafValues></_></weakClassifiers></_>
    <!-- stage 10 -->
    <_>
      <maxWeakCount>4</maxWeakCount>
      <stageThreshold>-6.1126691102981567e-01</stageThreshold>
      <weakClassifiers>
        <_>
          <internalNodes>
            0 -1 23 -9.5370355993509293e-03</internalNodes>
          <leafValues>
            -9.1891890764236450e-01 5.0000000000000000e-01</leafValues></_>
        <_>
          <internalNodes>
            0 -1 17 -5.4809791035950184e-03</internalNodes>
          <leafValues>
            7.4542945623397827e-01 -6.7546117305755615e-01</leafValues></_>
        <_>
          <internalNodes>
            0 -1 16 1.2144285719841719e-03</internalNodes>
          <leafValues>
            -7.2762882709503174e-01 5.3644144535064697e-01</leafValues></_>
        <_>
          <internalNodes>
            0 -1 5 -1.3319841818884015e-03</internalNodes>
          <leafValues>
            4.4667178392410278e-01 -9.7424709796905518e-01</leafValues></_></weakClassifiers></_>
    <!-- stage 11 -->
    <_>
      <maxWeakCount>4</maxWeakCount>
      <stageThreshold>-6.7995148897171021e-01</stageThreshold>
      <weakClassifiers>
        <_>
          <internalNodes>
            0 -1 2 8.8428072631359100e-03</internalNodes>
          <leafValues>
            -9.0769231319427490e-01 3.9199998974800110e-01</leafValues></_>
        <_>
          <internalNodes>
            0 -1 14 1.1562976287677884e-03</internalNodes>
          <leafValues>
            -7.8343468904495239e-01 4.9151298403739929e-01</leafValues></_>
        <_>
          <internalNodes>
            0 -1 20 3.5611900966614485e-03</internalNodes>
          <leafValues>
            -7.2953689098358154e-01 5.8620572090148926e-01</leafValues></_>
        <_>
          <internalNodes>
            0 -1 21 -8.5029855370521545e-02</internalNodes>
          <leafValues>
            5.1814860105514526e-01 -8.3392763137817383e-01</leafValues></_></weakClassifiers></_>
    <!-- stage 12 -->
    <_>
      <maxWeakCount>3</maxWeakCount>
      <stageThreshold>-8.9894965291023254e-02</stageThreshold>
      <weakClassifiers>
        <_>
          <internalNodes>
            0 -1 15 1.5998018207028508e-03</internalNodes>
          <leafValues>
            -8.3561640977859497e-01 4.3589743971824646e-01</leafValues></_>
        <_>
          <internalNodes>
            0 -1 11 7.8334324061870575e-03</internalNodes>
          <leafValues>
            -9.7247886657714844e-01 3.3364468812942505e-01</leafValues></_>
        <_>
          <internalNodes>
            0 -1 27 -4.4947643764317036e-03</internalNodes>
          <leafValues>
            -8.3654987812042236e-01 4.4668647646903992e-01</leafValues></_></weakClassifiers></_></stages>
  <features>
    <_>
      <rects>
        <_>
          0 0 24 4 -1.</_>
        <_>
          8 0 8 4 2.</_></rects>
      <tilted>0</tilted></_>
    <_>
      <rects>
        <_>
          0 0 18 7 -1.</_>
        <_>
          9 0 9 7 2.</_></rects>
      <tilted>0</tilted></_>
    <_>
      <rects>
        <_>
          0 12 10 2 -1.</_>
        <_>
          5 12 5 2 2.</_></rects>
      <tilted>0</tilted></_>
    <_>
      <rects>
        <_>
          0 12 12 8 -1.</_>
        <_>
          0 12 6 4 2.</_>
        <_>
          6 16 6 4 2.</_></rects>
      <tilted>0</tilted></_>
    <_>
      <rects>
        <_>
          2 12 12 1 -1.</_>
        <_>
          6 12 4 1 2.</_></rects>
      <tilted>0</tilted></_>
    <_>
      <rects>
        <_>
          3 0 8 22 -1.</_>
        <_>
          3 11 8 11 2.</_></rects>
      <tilted>0</tilted></_>
    <_>
      <rects>
        <_>
          4 11 14 8 -1.</_>
        <_>
          4 15 14 4 2.</_></rects>
      <tilted>0</tilted></_>
    <_>
      <rects>
        <_>
          4 12 7 6 -1.</_>
        <_>
          4 15 7 3 2.</_></rects>
      <tilted>0</tilted></_>
    <_>
      <rects>
        <_>
          4 12 16 8 -1.</_>
        <_>
          4 16 16 4 2.</_></rects>
      <tilted>0</tilted></_>
    <_>
      <rects>
        <_>
          4 13 20 4 -1.</_>
        <_>
          14 13 10 4 2.</_></rects>
      <tilted>0</tilted></_>
    <_>
      <rects>
        <_>
          4 19 17 2 -1.</_>
        <_>
          4 20 17 1 2.</_></rects>
      <tilted>0</tilted></_>
    <_>
      <rects>
        <_>
          5 0 12 5 -1.</_>
        <_>
          11 0 6 5 2.</_></rects>
      <tilted>0</tilted></_>
    <_>
      <rects>
        <_>
          5 22 19 2 -1.</_>
        <_>
          5 23 19 1 2.</_></rects>
      <tilted>0</tilted></_>
    <_>
      <rects>
        <_>
          6 2 11 4 -1.</_>
        <_>
          6 4 11 2 2.</_></rects>
      <tilted>0</tilted></_>
    <_>
      <rects>
        <_>
          6 6 4 1 -1.</_>
        <_>
          8 6 2 1 2.</_></rects>
      <tilted>0</tilted></_>
    <_>
      <rects>
        <_>
          6 16 14 8 -1.</_>
        <_>
          6 20 14 4 2.</_></rects>
      <tilted>0</tilted></_>
    <_>
      <rects>
        <_>
          7 2 2 6 -1.</_>
        <_>
          7 2 1 3 2.</_>
        <_>
          8 5 1 3 2.</_></rects>
      <tilted>0</tilted></_>
    <_>
      <rects>
        <_>
          9 5 10 2 -1.</_>
        <_>
          9 5 5 1 2.</_>
        <_>
          14 6 5 1 2.</_></rects>
      <tilted>0</tilted></_>
    <_>
      <rects>
        <_>
          10 0 2 6 -1.</_>
        <_>
          10 3 2 3 2.</_></rects>
      <tilted>0</tilted></_>
    <_>
      <rects>
        <_>
          10 6 6 9 -1.</_>
        <_>
          10 9 6 3 2.</_></rects>
      <tilted>0</tilted></_>
    <_>
      <rects>
        <_>
          11 4 6 2 -1.</_>
        <_>
          11 4 3 1 2.</_>
        <_>
          14 5 3 1 2.</_></rects>
      <tilted>0</tilted></_>
    <_>
      <rects>
        <_>
          12 1 8 12 -1.</_>
        <_>
          12 7 8 6 2.</_></rects>
      <tilted>0</tilted></_>
    <_>
      <rects>
        <_>
          13 5 6 4 -1.</_>
        <_>
          13 7 6 2 2.</_></rects>
      <tilted>0</tilted></_>
    <_>
      <rects>
        <_>
          13 7 8 10 -1.</_>
        <_>
          13 12 8 5 2.</_></rects>
      <tilted>0</tilted></_>
    <_>
      <rects>
        <_>
          14 0 9 10 -1.</_>
        <_>
          14 5 9 5 2.</_></rects>
      <tilted>0</tilted></_>
    <_>
      <rects>
        <_>
          14 5 10 4 -1.</_>
        <_>
          14 5 5 2 2.</_>
        <_>
          19 7 5 2 2.</_></rects>
      <tilted>0</tilted></_>
    <_>
      <rects>
        <_>
          22 3 2 21 -1.</_>
        <_>
          22 10 2 7 2.</_></rects>
      <tilted>0</tilted></_>
    <_>
      <rects>
        <_>
          23 2 1 10 -1.</_>
        <_>
          23 7 1 5 2.</_></rects>
      <tilted>0</tilted></_></features></cascade>
</opencv_storage>
