<?xml version="1.0"?>
<opencv_storage>
<cascade>
  <stageType>BOOST</stageType>
  <featureType>HAAR</featureType>
  <height>24</height>
  <width>24</width>
  <stageParams>
    <boostType>GAB</boostType>
    <minHitRate>9.9500000476837158e-01</minHitRate>
    <maxFalseAlarm>5.0000000000000000e-01</maxFalseAlarm>
    <weightTrimRate>9.4999999999999996e-01</weightTrimRate>
    <maxDepth>1</maxDepth>
    <maxWeakCount>100</maxWeakCount></stageParams>
  <featureParams>
    <maxCatCount>0</maxCatCount>
    <featSize>1</featSize>
    <mode>BASIC</mode></featureParams>
  <stageNum>10</stageNum>
  <stages>
    <!-- stage 0 -->
    <_>
      <maxWeakCount>1</maxWeakCount>
      <stageThreshold>8.6915886402130127e-01</stageThreshold>
      <weakClassifiers>
        <_>
          <internalNodes>
            0 -1 24 5.0102800130844116e-02</internalNodes>
          <leafValues>
            -1. 8.6915886402130127e-01</leafValues></_></weakClassifiers></_>
    <!-- stage 1 -->
    <_>
      <maxWeakCount>2</maxWeakCount>
      <stageThreshold>-4.2794834822416306e-02</stageThreshold>
      <weakClassifiers>
        <_>
          <internalNodes>
            0 -1 4 -8.4572106599807739e-02</internalNodes>
          <leafValues>
            9.7959184646606445e-01 -9.4117647409439087e-01</leafValues></_>
        <_>
          <internalNodes>
            0 -1 1 -6.6946804523468018e-02</internalNodes>
          <leafValues>
            8.9838165044784546e-01 -9.8090428113937378e-01</leafValues></_></weakClassifiers></_>
    <!-- stage 2 -->
    <_>
      <maxWeakCount>2</maxWeakCount>
      <stageThreshold>-2.4324399232864380e-01</stageThreshold>
      <weakClassifiers>
        <_>
          <internalNodes>
            0 -1 21 3.2380059361457825e-02</internalNodes>
          <leafValues>
            -9.7701150178909302e-01 7.5221240520477295e-01</leafValues></_>
        <_>
          <internalNodes>
            0 -1 14 2.0027307793498039e-02</internalNodes>
          <leafValues>
            -7.1163183450698853e-01 7.3376750946044922e-01</leafValues></_></weakClassifiers></_>
    <!-- stage 3 -->
    <_>
      <maxWeakCount>2</maxWeakCount>
      <stageThreshold>-1.5974448621273041e-01</stageThreshold>
      <weakClassifiers>
        <_>
          <internalNodes>
            0 -1 8 -5.0143547356128693e-02</internalNodes>
          <leafValues>
            6.0714286565780640e-01 -7.7272725105285645e-01</leafValues></_>
        <_>
          <internalNodes>
            0 -1 28 -6.7097479477524757e-03</internalNodes>
          <leafValues>
            6.1298280954360962e-01 -7.3874080181121826e-01</leafValues></_></weakClassifiers></_>
    <!-- stage 4 -->
    <_>
      <maxWeakCount>3</maxWeakCount>
      <stageThreshold>1.0184068977832794e-01</stageThreshold>
      <weakClassifiers>
        <_>
          <internalNodes>
            0 -1 18 -7.3200337588787079e-02</internalNodes>
          <leafValues>
            -9.4029849767684937e-01 4.7368422150611877e-01</leafValues></_>
        <_>
          <internalNodes>
            0 -1 11 -2.8700842522084713e-03</internalNodes>
          <leafValues>
            6.4097905158996582e-01 -6.3834738731384277e-01</leafValues></_>
        <_>
          <internalNodes>
            0 -1 12 -6.5540093928575516e-03</internalNodes>
          <leafValues>
            4.0116015076637268e-01 -1.</leafValues></_></weakClassifiers></_>
    <!-- stage 5 -->
    <_>
      <maxWeakCount>4</maxWeakCount>
      <stageThreshold>-2.4320784211158752e-01</stageThreshold>
      <weakClassifiers>
        <_>
          <internalNodes>
            0 -1 23 1.3947030529379845e-02</internalNodes>
          <leafValues>
            -7.0454543828964233e-01 5.5357140302658081e-01</leafValues></_>
        <_>
          <internalNodes>
            0 -1 10 -1.0581457056105137e-02</internalNodes>
          <leafValues>
            9.0836727619171143e-01 -3.8209435343742371e-01</leafValues></_>
        <_>
          <internalNodes>
            0 -1 25 4.6708802692592144e-03</internalNodes>
          <leafValues>
            -8.2301270961761475e-01 4.8567402362823486e-01</leafValues></_>
        <_>
          <internalNodes>
            0 -1 9 -3.8480248767882586e-03</internalNodes>
          <leafValues>
            4.0832778811454773e-01 -7.9338926076889038e-01</leafValues></_></weakClassifiers></_>
    <!-- stage 6 -->
    <_>
      <maxWeakCount>4</maxWeakCount>
      <stageThreshold>-1.1871848106384277e+00</stageThreshold>
      <weakClassifiers>
        <_>
          <internalNodes>
            0 -1 2 -3.4289586544036865e-01</internalNodes>
          <leafValues>
            4.1007193922996521e-01 -9.3442624807357788e-01</leafValues></_>
        <_>
          <internalNodes>
            0 -1 5 5.5653275921940804e-03</internalNodes>
          <leafValues>
            -4.8653006553649902e-01 8.0466920137405396e-01</leafValues></_>
        <_>
          <internalNodes>
            0 -1 27 -1.6585658886469901e-04</internalNodes>
          <leafValues>
            6.6420310735702515e-01 -5.7129055261611938e-01</leafValues></_>
        <_>
          <internalNodes>
            0 -1 6 3.7848949432373047e-03</internalNodes>
          <leafValues>
            -5.3943616151809692e-01 6.8765020370483398e-01</leafValues></_></weakClassifiers></_>
    <!-- stage 7 -->
    <_>
      <maxWeakCount>5</maxWeakCount>
      <stageThreshold>-9.0217411518096924e-01</stageThreshold>
      <weakClassifiers>
        <_>
          <internalNodes>
            0 -1 19 -3.0350625514984131e-02</internalNodes>
          <leafValues>
            -7.5675678253173828e-01 4.4444444775581360e-01</leafValues></_>
        <_>
          <internalNodes>
            0 -1 30 6.7714117467403412e-03</internalNodes>
          <leafValues>
            -5.4552000761032104e-01 6.5372049808502197e-01</leafValues></_>
        <_>
          <internalNodes>
            0 -1 29 8.4980614483356476e-03</internalNodes>
          <leafValues>
            -6.4315009117126465e-01 5.7410299777984619e-01</leafValues></_>
        <_>
          <internalNodes>
            0 -1 22 -4.8252957640215755e-04</internalNodes>
          <leafValues>
            -6.4862895011901855e-01 4.5959490537643433e-01</leafValues></_>
        <_>
          <internalNodes>
            0 -1 7 1.3294211821630597e-03</internalNodes>
          <leafValues>
            -6.6778963804244995e-01 4.9068051576614380e-01</leafValues></_></weakClassifiers></_>
    <!-- stage 8 -->
    <_>
      <maxWeakCount>4</maxWeakCount>
      <stageThreshold>-5.3219830989837646e-01</stageThreshold>
      <weakClassifiers>
        <_>
          <internalNodes>
            0 -1 31 1.6096240142360330e-03</internalNodes>
          <leafValues>
            5.5555558204650879e-01 -7.8313255310058594e-01</leafValues></_>
        <_>
          <internalNodes>
            0 -1 15 -2.1948441863059998e-02</internalNodes>
          <leafValues>
            -8.4199315309524536e-01 4.4861581921577454e-01</leafValues></_>
        <_>
          <internalNodes>
            0 -1 20 -1.6770346555858850e-03</internalNodes>
          <leafValues>
            6.5080273151397705e-01 -6.2398761510848999e-01</leafValues></_>
        <_>
          <internalNodes>
            0 -1 16 1.9663851708173752e-02</internalNodes>
          <leafValues>
            -8.2058727741241455e-01 4.2630603909492493e-01</leafValues></_></weakClassifiers></_>
    <!-- stage 9 -->
    <_>
      <maxWeakCount>5</maxWeakCount>
      <stageThreshold>-6.1645823717117310e-01</stageThreshold>
      <weakClassifiers>
        <_>
          <internalNodes>
            0 -1 26 -2.5908611714839935e-03</internalNodes>
          <leafValues>
            6.9411766529083252e-01 -5.1304346323013306e-01</leafValues></_>
        <_>
          <internalNodes>
            0 -1 0 6.1971822287887335e-04</internalNodes>
          <leafValues>
            3.7770467996597290e-01 -8.6021298170089722e-01</leafValues></_>
        <_>
          <internalNodes>
            0 -1 17 6.4392657950520515e-03</internalNodes>
          <leafValues>
            -4.1124048829078674e-01 8.2627731561660767e-01</leafValues></_>
        <_>
          <internalNodes>
            0 -1 3 9.7855031490325928e-03</internalNodes>
          <leafValues>
            -4.1764315962791443e-01 7.6171064376831055e-01</leafValues></_>
        <_>
          <internalNodes>
            0 -1 13 1.6538769006729126e-01</internalNodes>
          <leafValues>
            -8.3158957958221436e-01 5.5057549476623535e-01</leafValues></_></weakClassifiers></_></stages>
  <features>
    <_>
      <rects>
        <_>
          0 9 2 3 -1.</_>
        <_>
          1 9 1 3 2.</_></rects>
      <tilted>0</tilted></_>
    <_>
      <rects>
        <_>
          0 11 14 7 -1.</_>
        <_>
          7 11 7 7 2.</_></rects>
      <tilted>0</tilted></_>
    <_>
      <rects>
        <_>
          0 12 24 5 -1.</_>
        <_>
          8 12 8 5 2.</_></rects>
      <tilted>0</tilted></_>
    <_>
      <rects>
        <_>
          0 22 22 2 -1.</_>
        <_>
          0 23 22 1 2.</_></rects>
      <tilted>0</tilted></_>
    <_>
      <rects>
        <_>
          1 10 14 7 -1.</_>
        <_>
          8 10 7 7 2.</_></rects>
      <tilted>0</tilted></_>
    <_>
      <rects>
        <_>
          2 3 12 2 -1.</_>
        <_>
          2 4 12 1 2.</_></rects>
      <tilted>0</tilted></_>
    <_>
      <rects>
        <_>
          3 22 17 2 -1.</_>
        <_>
          3 23 17 1 2.</_></rects>
      <tilted>0</tilted></_>
    <_>
      <rects>
        <_>
          4 3 17 2 -1.</_>
        <_>
          4 4 17 1 2.</_></rects>
      <tilted>0</tilted></_>
    <_>
      <rects>
        <_>
          4 11 8 6 -1.</_>
        <_>
          8 11 4 6 2.</_></rects>
      <tilted>0</tilted></_>
    <_>
      <rects>
        <_>
          7 5 6 2 -1.</_>
        <_>
          10 5 3 2 2.</_></rects>
      <tilted>0</tilted></_>
    <_>
      <rects>
        <_>
          8 1 6 4 -1.</_>
        <_>
          8 1 3 2 2.</_>
        <_>
          11 3 3 2 2.</_></rects>
      <tilted>0</tilted></_>
    <_>
      <rects>
        <_>
          9 2 2 5 -1.</_>
        <_>
          10 2 1 5 2.</_></rects>
      <tilted>0</tilted></_>
    <_>
      <rects>
        <_>
          9 4 3 8 -1.</_>
        <_>
          9 8 3 4 2.</_></rects>
      <tilted>0</tilted></_>
    <_>
      <rects>
        <_>
          9 6 14 11 -1.</_>
        <_>
          16 6 7 11 2.</_></rects>
      <tilted>0</tilted></_>
    <_>
      <rects>
        <_>
          9 9 13 6 -1.</_>
        <_>
          9 12 13 3 2.</_></rects>
      <tilted>0</tilted></_>
    <_>
      <rects>
        <_>
          9 10 6 2 -1.</_>
        <_>
          11 10 2 2 2.</_></rects>
      <tilted>0</tilted></_>
    <_>
      <rects>
        <_>
          9 10 9 6 -1.</_>
        <_>
          9 13 9 3 2.</_></rects>
      <tilted>0</tilted></_>
    <_>
      <rects>
        <_>
          9 11 2 10 -1.</_>
        <_>
          9 11 1 5 2.</_>
        <_>
          10 16 1 5 2.</_></rects>
      <tilted>0</tilted></_>
    <_>
      <rects>
        <_>
          10 1 3 12 -1.</_>
        <_>
          10 5 3 4 2.</_></rects>
      <tilted>0</tilted></_>
    <_>
      <rects>
        <_>
          10 2 3 6 -1.</_>
        <_>
          10 4 3 2 2.</_></rects>
      <tilted>0</tilted></_>
    <_>
      <rects>
        <_>
          10 4 4 2 -1.</_>
        <_>
          10 5 4 1 2.</_></rects>
      <tilted>0</tilted></_>
    <_>
      <rects>
        <_>
          10 9 6 10 -1.</_>
        <_>
          10 14 6 5 2.</_></rects>
      <tilted>0</tilted></_>
    <_>
      <rects>
        <_>
          10 10 2 3 -1.</_>
        <_>
          11 10 1 3 2.</_></rects>
      <tilted>0</tilted></_>
    <_>
      <rects>
        <_>
          11 3 8 5 -1.</_>
        <_>
          15 3 4 5 2.</_></rects>
      <tilted>0</tilted></_>
    <_>
      <rects>
        <_>
          11 8 12 6 -1.</_>
        <_>
          17 8 6 6 2.</_></rects>
      <tilted>0</tilted></_>
    <_>
      <rects>
        <_>
          11 11 4 4 -1.</_>
        <_>
          11 13 4 2 2.</_></rects>
      <tilted>0</tilted></_>
    <_>
      <rects>
        <_>
          12 2 2 10 -1.</_>
        <_>
          12 2 1 5 2.</_>
        <_>
          13 7 1 5 2.</_></rects>
      <tilted>0</tilted></_>
    <_>
      <rects>
        <_>
          13 7 2 2 -1.</_>
        <_>
          14 7 1 2 2.</_></rects>
      <tilted>0</tilted></_>
    <_>
      <rects>
        <_>
          14 4 2 6 -1.</_>
        <_>
          14 7 2 3 2.</_></rects>
      <tilted>0</tilted></_>
    <_>
      <rects>
        <_>
          14 17 10 6 -1.</_>
        <_>
          19 17 5 6 2.</_></rects>
      <tilted>0</tilted></_>
    <_>
      <rects>
        <_>
          14 20 8 4 -1.</_>
        <_>
          14 22 8 2 2.</_></rects>
      <tilted>0</tilted></_>
    <_>
      <rects>
        <_>
          18 8 2 9 -1.</_>
        <_>
          19 8 1 9 2.</_></rects>
      <tilted>0</tilted></_></features></cascade>
</opencv_storage>
