<?xml version="1.0"?>
<opencv_storage>
<cascade>
  <stageType>BOOST</stageType>
  <featureType>HAAR</featureType>
  <height>24</height>
  <width>24</width>
  <stageParams>
    <boostType>GAB</boostType>
    <minHitRate>9.9500000476837158e-01</minHitRate>
    <maxFalseAlarm>5.0000000000000000e-01</maxFalseAlarm>
    <weightTrimRate>9.4999999999999996e-01</weightTrimRate>
    <maxDepth>1</maxDepth>
    <maxWeakCount>100</maxWeakCount></stageParams>
  <featureParams>
    <maxCatCount>0</maxCatCount>
    <featSize>1</featSize>
    <mode>BASIC</mode></featureParams>
  <stageNum>9</stageNum>
  <stages>
    <!-- stage 0 -->
    <_>
      <maxWeakCount>2</maxWeakCount>
      <stageThreshold>-1.1820016056299210e-01</stageThreshold>
      <weakClassifiers>
        <_>
          <internalNodes>
            0 -1 12 7.6077103614807129e-02</internalNodes>
          <leafValues>
            -9.7959184646606445e-01 9.1666668653488159e-01</leafValues></_>
        <_>
          <internalNodes>
            0 -1 0 -2.2316169738769531e-01</internalNodes>
          <leafValues>
            8.6139166355133057e-01 -1.</leafValues></_></weakClassifiers></_>
    <!-- stage 1 -->
    <_>
      <maxWeakCount>2</maxWeakCount>
      <stageThreshold>-4.0487874299287796e-02</stageThreshold>
      <weakClassifiers>
        <_>
          <internalNodes>
            0 -1 3 -9.0314701199531555e-02</internalNodes>
          <leafValues>
            8.5915493965148926e-01 -9.1919189691543579e-01</leafValues></_>
        <_>
          <internalNodes>
            0 -1 10 -7.9352315515279770e-03</internalNodes>
          <leafValues>
            9.1384696960449219e-01 -8.9964282512664795e-01</leafValues></_></weakClassifiers></_>
    <!-- stage 2 -->
    <_>
      <maxWeakCount>1</maxWeakCount>
      <stageThreshold>8.6666667461395264e-01</stageThreshold>
      <weakClassifiers>
        <_>
          <internalNodes>
            0 -1 11 2.3328373208642006e-02</internalNodes>
          <leafValues>
            -1. 8.6666667461395264e-01</leafValues></_></weakClassifiers></_>
    <!-- stage 3 -->
    <_>
      <maxWeakCount>2</maxWeakCount>
      <stageThreshold>-3.2871764898300171e-01</stageThreshold>
      <weakClassifiers>
        <_>
          <internalNodes>
            0 -1 13 1.3501663506031036e-01</internalNodes>
          <leafValues>
            -8.9130437374114990e-01 6.6666668653488159e-01</leafValues></_>
        <_>
          <internalNodes>
            0 -1 9 -1.9148907065391541e-01</internalNodes>
          <leafValues>
            -9.7900289297103882e-01 5.6258672475814819e-01</leafValues></_></weakClassifiers></_>
    <!-- stage 4 -->
    <_>
      <maxWeakCount>1</maxWeakCount>
      <stageThreshold>5.2173912525177002e-01</stageThreshold>
      <weakClassifiers>
        <_>
          <internalNodes>
            0 -1 7 -3.6321554332971573e-02</internalNodes>
          <leafValues>
            5.2173912525177002e-01 -1.</leafValues></_></weakClassifiers></_>
    <!-- stage 5 -->
    <_>
      <maxWeakCount>2</maxWeakCount>
      <stageThreshold>-2.1935357153415680e-01</stageThreshold>
      <weakClassifiers>
        <_>
          <internalNodes>
            0 -1 1 -1.3218444585800171e-01</internalNodes>
          <leafValues>
            6.5789473056793213e-01 -8.5106384754180908e-01</leafValues></_>
        <_>
          <internalNodes>
            0 -1 6 -1.3474280945956707e-02</internalNodes>
          <leafValues>
            6.3171029090881348e-01 -8.6963838338851929e-01</leafValues></_></weakClassifiers></_>
    <!-- stage 6 -->
    <_>
      <maxWeakCount>2</maxWeakCount>
      <stageThreshold>-1.7329423129558563e-01</stageThreshold>
      <weakClassifiers>
        <_>
          <internalNodes>
            0 -1 8 -3.4113791771233082e-03</internalNodes>
          <leafValues>
            5.3846156597137451e-01 -7.8260868787765503e-01</leafValues></_>
        <_>
          <internalNodes>
            0 -1 5 -1.0750599205493927e-02</internalNodes>
          <leafValues>
            7.7282953262329102e-01 -7.1175575256347656e-01</leafValues></_></weakClassifiers></_>
    <!-- stage 7 -->
    <_>
      <maxWeakCount>2</maxWeakCount>
      <stageThreshold>-1.6814029216766357e-01</stageThreshold>
      <weakClassifiers>
        <_>
          <internalNodes>
            0 -1 15 9.4353005290031433e-02</internalNodes>
          <leafValues>
            -6.2711864709854126e-01 8.4615385532379150e-01</leafValues></_>
        <_>
          <internalNodes>
            0 -1 2 -8.2410342292860150e-04</internalNodes>
          <leafValues>
            4.5897835493087769e-01 -9.3474805355072021e-01</leafValues></_></weakClassifiers></_>
    <!-- stage 8 -->
    <_>
      <maxWeakCount>2</maxWeakCount>
      <stageThreshold>-1.0594157874584198e-01</stageThreshold>
      <weakClassifiers>
        <_>
          <internalNodes>
            0 -1 14 -6.9096134975552559e-03</internalNodes>
          <leafValues>
            -9.7297298908233643e-01 4.3750000000000000e-01</leafValues></_>
        <_>
          <internalNodes>
            0 -1 4 3.3415635116398335e-03</internalNodes>
          <leafValues>
            -5.3139752149581909e-01 8.6703139543533325e-01</leafValues></_></weakClassifiers></_></stages>
  <features>
    <_>
      <rects>
        <_>
          0 5 16 13 -1.</_>
        <_>
          8 5 8 13 2.</_></rects>
      <tilted>0</tilted></_>
    <_>
      <rects>
        <_>
          1 11 14 8 -1.</_>
        <_>
          8 11 7 8 2.</_></rects>
      <tilted>0</tilted></_>
    <_>
      <rects>
        <_>
          2 6 10 6 -1.</_>
        <_>
          2 6 5 3 2.</_>
        <_>
          7 9 5 3 2.</_></rects>
      <tilted>0</tilted></_>
    <_>
      <rects>
        <_>
          4 8 10 9 -1.</_>
        <_>
          9 8 5 9 2.</_></rects>
      <tilted>0</tilted></_>
    <_>
      <rects>
        <_>
          6 1 6 2 -1.</_>
        <_>
          6 1 3 1 2.</_>
        <_>
          9 2 3 1 2.</_></rects>
      <tilted>0</tilted></_>
    <_>
      <rects>
        <_>
          8 1 2 16 -1.</_>
        <_>
          9 1 1 16 2.</_></rects>
      <tilted>0</tilted></_>
    <_>
      <rects>
        <_>
          8 1 6 6 -1.</_>
        <_>
          11 1 3 6 2.</_></rects>
      <tilted>0</tilted></_>
    <_>
      <rects>
        <_>
          8 2 12 6 -1.</_>
        <_>
          8 5 12 3 2.</_></rects>
      <tilted>0</tilted></_>
    <_>
      <rects>
        <_>
          9 0 6 2 -1.</_>
        <_>
          9 1 6 1 2.</_></rects>
      <tilted>0</tilted></_>
    <_>
      <rects>
        <_>
          10 1 6 15 -1.</_>
        <_>
          10 6 6 5 2.</_></rects>
      <tilted>0</tilted></_>
    <_>
      <rects>
        <_>
          10 3 10 2 -1.</_>
        <_>
          10 4 10 1 2.</_></rects>
      <tilted>0</tilted></_>
    <_>
      <rects>
        <_>
          10 10 10 6 -1.</_>
        <_>
          10 13 10 3 2.</_></rects>
      <tilted>0</tilted></_>
    <_>
      <rects>
        <_>
          12 8 12 6 -1.</_>
        <_>
          18 8 6 6 2.</_></rects>
      <tilted>0</tilted></_>
    <_>
      <rects>
        <_>
          13 3 10 14 -1.</_>
        <_>
          18 3 5 14 2.</_></rects>
      <tilted>0</tilted></_>
    <_>
      <rects>
        <_>
          14 5 2 3 -1.</_>
        <_>
          14 6 2 1 2.</_></rects>
      <tilted>0</tilted></_>
    <_>
      <rects>
        <_>
          16 4 6 14 -1.</_>
        <_>
          19 4 3 14 2.</_></rects>
      <tilted>0</tilted></_></features></cascade>
</opencv_storage>
