<?xml version="1.0"?>
<opencv_storage>
<cascade>
  <stageType>BOOST</stageType>
  <featureType>HAAR</featureType>
  <height>24</height>
  <width>24</width>
  <stageParams>
    <boostType>GAB</boostType>
    <minHitRate>9.9500000476837158e-01</minHitRate>
    <maxFalseAlarm>5.0000000000000000e-01</maxFalseAlarm>
    <weightTrimRate>9.4999999999999996e-01</weightTrimRate>
    <maxDepth>1</maxDepth>
    <maxWeakCount>100</maxWeakCount></stageParams>
  <featureParams>
    <maxCatCount>0</maxCatCount>
    <featSize>1</featSize>
    <mode>BASIC</mode></featureParams>
  <stageNum>12</stageNum>
  <stages>
    <!-- stage 0 -->
    <_>
      <maxWeakCount>1</maxWeakCount>
      <stageThreshold>6.9696968793869019e-01</stageThreshold>
      <weakClassifiers>
        <_>
          <internalNodes>
            0 -1 3 -2.6322782039642334e-01</internalNodes>
          <leafValues>
            6.9696968793869019e-01 -1.</leafValues></_></weakClassifiers></_>
    <!-- stage 1 -->
    <_>
      <maxWeakCount>3</maxWeakCount>
      <stageThreshold>-9.9185502529144287e-01</stageThreshold>
      <weakClassifiers>
        <_>
          <internalNodes>
            0 -1 22 4.0290355682373047e-03</internalNodes>
          <leafValues>
            -8.7628865242004395e-01 6.9491523504257202e-01</leafValues></_>
        <_>
          <internalNodes>
            0 -1 0 -1.0102613829076290e-02</internalNodes>
          <leafValues>
            -8.2581967115402222e-01 7.6544862985610962e-01</leafValues></_>
        <_>
          <internalNodes>
            0 -1 5 -1.8762674927711487e-01</internalNodes>
          <leafValues>
            -9.0506094694137573e-01 7.1025329828262329e-01</leafValues></_></weakClassifiers></_>
    <!-- stage 2 -->
    <_>
      <maxWeakCount>3</maxWeakCount>
      <stageThreshold>-1.0411355495452881e+00</stageThreshold>
      <weakClassifiers>
        <_>
          <internalNodes>
            0 -1 9 -1.4165286719799042e-01</internalNodes>
          <leafValues>
            8.4905660152435303e-01 -8.6407768726348877e-01</leafValues></_>
        <_>
          <internalNodes>
            0 -1 11 7.0389388129115105e-03</internalNodes>
          <leafValues>
            -8.6052215099334717e-01 6.7177087068557739e-01</leafValues></_>
        <_>
          <internalNodes>
            0 -1 8 1.6862325370311737e-02</internalNodes>
          <leafValues>
            -9.0713542699813843e-01 6.8346422910690308e-01</leafValues></_></weakClassifiers></_>
    <!-- stage 3 -->
    <_>
      <maxWeakCount>1</maxWeakCount>
      <stageThreshold>5.7746475934982300e-01</stageThreshold>
      <weakClassifiers>
        <_>
          <internalNodes>
            0 -1 1 -8.8544338941574097e-03</internalNodes>
          <leafValues>
            5.7746475934982300e-01 -1.</leafValues></_></weakClassifiers></_>
    <!-- stage 4 -->
    <_>
      <maxWeakCount>2</maxWeakCount>
      <stageThreshold>-3.5184016823768616e-01</stageThreshold>
      <weakClassifiers>
        <_>
          <internalNodes>
            0 -1 25 1.2559219030663371e-03</internalNodes>
          <leafValues>
            -7.7319586277008057e-01 5.2542370557785034e-01</leafValues></_>
        <_>
          <internalNodes>
            0 -1 32 -7.0137269794940948e-03</internalNodes>
          <leafValues>
            -8.7726390361785889e-01 4.4698834419250488e-01</leafValues></_></weakClassifiers></_>
    <!-- stage 5 -->
    <_>
      <maxWeakCount>3</maxWeakCount>
      <stageThreshold>-4.4527366757392883e-01</stageThreshold>
      <weakClassifiers>
        <_>
          <internalNodes>
            0 -1 19 -1.6670947894454002e-02</internalNodes>
          <leafValues>
            9.3333333730697632e-01 -5.7142859697341919e-01</leafValues></_>
        <_>
          <internalNodes>
            0 -1 13 7.0686593651771545e-02</internalNodes>
          <leafValues>
            -4.4078579545021057e-01 9.1285401582717896e-01</leafValues></_>
        <_>
          <internalNodes>
            0 -1 2 4.0267906151711941e-03</internalNodes>
          <leafValues>
            -7.8669911623001099e-01 5.8925265073776245e-01</leafValues></_></weakClassifiers></_>
    <!-- stage 6 -->
    <_>
      <maxWeakCount>2</maxWeakCount>
      <stageThreshold>-2.1450708806514740e-01</stageThreshold>
      <weakClassifiers>
        <_>
          <internalNodes>
            0 -1 26 -5.0620496273040771e-02</internalNodes>
          <leafValues>
            8.2352942228317261e-01 -5.9016394615173340e-01</leafValues></_>
        <_>
          <internalNodes>
            0 -1 23 1.1035123839974403e-02</internalNodes>
          <leafValues>
            -9.2657607793807983e-01 3.7565684318542480e-01</leafValues></_></weakClassifiers></_>
    <!-- stage 7 -->
    <_>
      <maxWeakCount>5</maxWeakCount>
      <stageThreshold>-4.8665180802345276e-01</stageThreshold>
      <weakClassifiers>
        <_>
          <internalNodes>
            0 -1 21 -7.7909175306558609e-03</internalNodes>
          <leafValues>
            8.6666667461395264e-01 -5.5555558204650879e-01</leafValues></_>
        <_>
          <internalNodes>
            0 -1 24 -8.6194500327110291e-02</internalNodes>
          <leafValues>
            7.2412604093551636e-01 -5.1029431819915771e-01</leafValues></_>
        <_>
          <internalNodes>
            0 -1 7 1.9441470503807068e-03</internalNodes>
          <leafValues>
            -7.3970961570739746e-01 4.7418645024299622e-01</leafValues></_>
        <_>
          <internalNodes>
            0 -1 6 -5.4187113419175148e-03</internalNodes>
          <leafValues>
            6.3788121938705444e-01 -4.7556170821189880e-01</leafValues></_>
        <_>
          <internalNodes>
            0 -1 4 -2.0617200434207916e-01</internalNodes>
          <leafValues>
            6.4676779508590698e-01 -5.3286957740783691e-01</leafValues></_></weakClassifiers></_>
    <!-- stage 8 -->
    <_>
      <maxWeakCount>4</maxWeakCount>
      <stageThreshold>-3.4266617894172668e-01</stageThreshold>
      <weakClassifiers>
        <_>
          <internalNodes>
            0 -1 20 -4.0969988331198692e-03</internalNodes>
          <leafValues>
            7.1428573131561279e-01 -5.7024794816970825e-01</leafValues></_>
        <_>
          <internalNodes>
            0 -1 17 -3.3746301196515560e-03</internalNodes>
          <leafValues>
            8.1992530822753906e-01 -3.9282444119453430e-01</leafValues></_>
        <_>
          <internalNodes>
            0 -1 31 9.3948971480131149e-03</internalNodes>
          <leafValues>
            3.7060970067977905e-01 -9.3846267461776733e-01</leafValues></_>
        <_>
          <internalNodes>
            0 -1 28 7.2682730387896299e-04</internalNodes>
          <leafValues>
            -8.5899442434310913e-01 3.4611907601356506e-01</leafValues></_></weakClassifiers></_>
    <!-- stage 9 -->
    <_>
      <maxWeakCount>3</maxWeakCount>
      <stageThreshold>-5.2307075262069702e-01</stageThreshold>
      <weakClassifiers>
        <_>
          <internalNodes>
            0 -1 14 -4.7345921397209167e-02</internalNodes>
          <leafValues>
            1. -5.3846156597137451e-01</leafValues></_>
        <_>
          <internalNodes>
            0 -1 29 -3.0602701008319855e-02</internalNodes>
          <leafValues>
            -7.2060853242874146e-01 4.2593681812286377e-01</leafValues></_>
        <_>
          <internalNodes>
            0 -1 10 -1.7132956534624100e-02</internalNodes>
          <leafValues>
            9.1924327611923218e-01 -4.1054600477218628e-01</leafValues></_></weakClassifiers></_>
    <!-- stage 10 -->
    <_>
      <maxWeakCount>3</maxWeakCount>
      <stageThreshold>-1.0309185832738876e-01</stageThreshold>
      <weakClassifiers>
        <_>
          <internalNodes>
            0 -1 15 -1.7669476568698883e-02</internalNodes>
          <leafValues>
            1.0000000149011612e-01 -9.6428573131561279e-01</leafValues></_>
        <_>
          <internalNodes>
            0 -1 27 4.1340114548802376e-03</internalNodes>
          <leafValues>
            -8.4026342630386353e-01 2.5413313508033752e-01</leafValues></_>
        <_>
          <internalNodes>
            0 -1 12 1.1231685057282448e-02</internalNodes>
          <leafValues>
            -4.5722499489784241e-01 7.1546351909637451e-01</leafValues></_></weakClassifiers></_>
    <!-- stage 11 -->
    <_>
      <maxWeakCount>3</maxWeakCount>
      <stageThreshold>-3.9223098754882813e-01</stageThreshold>
      <weakClassifiers>
        <_>
          <internalNodes>
            0 -1 18 9.9728014320135117e-03</internalNodes>
          <leafValues>
            -7.3809522390365601e-01 2.5000000000000000e-01</leafValues></_>
        <_>
          <internalNodes>
            0 -1 16 8.5951201617717743e-03</internalNodes>
          <leafValues>
            2.3456233739852905e-01 -9.5527994632720947e-01</leafValues></_>
        <_>
          <internalNodes>
            0 -1 30 9.7534544765949249e-03</internalNodes>
          <leafValues>
            3.1304892897605896e-01 -8.0983817577362061e-01</leafValues></_></weakClassifiers></_></stages>
  <features>
    <_>
      <rects>
        <_>
          0 0 1 24 -1.</_>
        <_>
          0 12 1 12 2.</_></rects>
      <tilted>0</tilted></_>
    <_>
      <rects>
        <_>
          0 18 1 6 -1.</_>
        <_>
          0 20 1 2 2.</_></rects>
      <tilted>0</tilted></_>
    <_>
      <rects>
        <_>
          1 0 6 10 -1.</_>
        <_>
          1 0 3 5 2.</_>
        <_>
          4 5 3 5 2.</_></rects>
      <tilted>0</tilted></_>
    <_>
      <rects>
        <_>
          1 1 16 22 -1.</_>
        <_>
          1 12 16 11 2.</_></rects>
      <tilted>0</tilted></_>
    <_>
      <rects>
        <_>
          2 7 19 10 -1.</_>
        <_>
          2 12 19 5 2.</_></rects>
      <tilted>0</tilted></_>
    <_>
      <rects>
        <_>
          3 2 8 9 -1.</_>
        <_>
          3 5 8 3 2.</_></rects>
      <tilted>0</tilted></_>
    <_>
      <rects>
        <_>
          4 15 15 2 -1.</_>
        <_>
          4 16 15 1 2.</_></rects>
      <tilted>0</tilted></_>
    <_>
      <rects>
        <_>
          4 21 13 2 -1.</_>
        <_>
          4 22 13 1 2.</_></rects>
      <tilted>0</tilted></_>
    <_>
      <rects>
        <_>
          5 1 14 10 -1.</_>
        <_>
          5 6 14 5 2.</_></rects>
      <tilted>0</tilted></_>
    <_>
      <rects>
        <_>
          5 7 13 10 -1.</_>
        <_>
          5 12 13 5 2.</_></rects>
      <tilted>0</tilted></_>
    <_>
      <rects>
        <_>
          5 8 4 7 -1.</_>
        <_>
          7 8 2 7 2.</_></rects>
      <tilted>0</tilted></_>
    <_>
      <rects>
        <_>
          5 18 6 6 -1.</_>
        <_>
          5 21 6 3 2.</_></rects>
      <tilted>0</tilted></_>
    <_>
      <rects>
        <_>
          6 6 4 9 -1.</_>
        <_>
          8 6 2 9 2.</_></rects>
      <tilted>0</tilted></_>
    <_>
      <rects>
        <_>
          6 6 10 8 -1.</_>
        <_>
          11 6 5 8 2.</_></rects>
      <tilted>0</tilted></_>
    <_>
      <rects>
        <_>
          6 9 8 9 -1.</_>
        <_>
          10 9 4 9 2.</_></rects>
      <tilted>0</tilted></_>
    <_>
      <rects>
        <_>
          6 23 12 1 -1.</_>
        <_>
          10 23 4 1 2.</_></rects>
      <tilted>0</tilted></_>
    <_>
      <rects>
        <_>
          7 0 9 4 -1.</_>
        <_>
          7 2 9 2 2.</_></rects>
      <tilted>0</tilted></_>
    <_>
      <rects>
        <_>
          8 5 3 4 -1.</_>
        <_>
          8 7 3 2 2.</_></rects>
      <tilted>0</tilted></_>
    <_>
      <rects>
        <_>
          8 16 4 6 -1.</_>
        <_>
          8 19 4 3 2.</_></rects>
      <tilted>0</tilted></_>
    <_>
      <rects>
        <_>
          9 2 4 9 -1.</_>
        <_>
          11 2 2 9 2.</_></rects>
      <tilted>0</tilted></_>
    <_>
      <rects>
        <_>
          10 3 2 10 -1.</_>
        <_>
          10 3 1 5 2.</_>
        <_>
          11 8 1 5 2.</_></rects>
      <tilted>0</tilted></_>
    <_>
      <rects>
        <_>
          10 7 4 2 -1.</_>
        <_>
          12 7 2 2 2.</_></rects>
      <tilted>0</tilted></_>
    <_>
      <rects>
        <_>
          10 15 2 8 -1.</_>
        <_>
          10 19 2 4 2.</_></rects>
      <tilted>0</tilted></_>
    <_>
      <rects>
        <_>
          10 17 14 4 -1.</_>
        <_>
          17 17 7 4 2.</_></rects>
      <tilted>0</tilted></_>
    <_>
      <rects>
        <_>
          13 9 4 12 -1.</_>
        <_>
          13 15 4 6 2.</_></rects>
      <tilted>0</tilted></_>
    <_>
      <rects>
        <_>
          14 20 3 2 -1.</_>
        <_>
          14 21 3 1 2.</_></rects>
      <tilted>0</tilted></_>
    <_>
      <rects>
        <_>
          15 8 2 12 -1.</_>
        <_>
          15 14 2 6 2.</_></rects>
      <tilted>0</tilted></_>
    <_>
      <rects>
        <_>
          16 18 8 6 -1.</_>
        <_>
          16 21 8 3 2.</_></rects>
      <tilted>0</tilted></_>
    <_>
      <rects>
        <_>
          16 21 8 2 -1.</_>
        <_>
          20 21 4 2 2.</_></rects>
      <tilted>0</tilted></_>
    <_>
      <rects>
        <_>
          19 7 4 3 -1.</_>
        <_>
          19 8 4 1 2.</_></rects>
      <tilted>0</tilted></_>
    <_>
      <rects>
        <_>
          20 10 4 13 -1.</_>
        <_>
          22 10 2 13 2.</_></rects>
      <tilted>0</tilted></_>
    <_>
      <rects>
        <_>
          21 14 3 8 -1.</_>
        <_>
          21 18 3 4 2.</_></rects>
      <tilted>0</tilted></_>
    <_>
      <rects>
        <_>
          23 0 1 24 -1.</_>
        <_>
          23 12 1 12 2.</_></rects>
      <tilted>0</tilted></_></features></cascade>
</opencv_storage>
