<?xml version="1.0"?>
<opencv_storage>
<cascade>
  <stageType>BOOST</stageType>
  <featureType>HAAR</featureType>
  <height>24</height>
  <width>24</width>
  <stageParams>
    <boostType>GAB</boostType>
    <minHitRate>9.9500000476837158e-01</minHitRate>
    <maxFalseAlarm>5.0000000000000000e-01</maxFalseAlarm>
    <weightTrimRate>9.4999999999999996e-01</weightTrimRate>
    <maxDepth>1</maxDepth>
    <maxWeakCount>100</maxWeakCount></stageParams>
  <featureParams>
    <maxCatCount>0</maxCatCount>
    <featSize>1</featSize>
    <mode>BASIC</mode></featureParams>
  <stageNum>14</stageNum>
  <stages>
    <!-- stage 0 -->
    <_>
      <maxWeakCount>1</maxWeakCount>
      <stageThreshold>6.4705884456634521e-01</stageThreshold>
      <weakClassifiers>
        <_>
          <internalNodes>
            0 -1 11 -6.3148781657218933e-02</internalNodes>
          <leafValues>
            6.4705884456634521e-01 -1.</leafValues></_></weakClassifiers></_>
    <!-- stage 1 -->
    <_>
      <maxWeakCount>2</maxWeakCount>
      <stageThreshold>-4.0963888168334961e-01</stageThreshold>
      <weakClassifiers>
        <_>
          <internalNodes>
            0 -1 31 4.5697810128331184e-03</internalNodes>
          <leafValues>
            -8.9690721035003662e-01 7.2881358861923218e-01</leafValues></_>
        <_>
          <internalNodes>
            0 -1 6 -3.0456021428108215e-01</internalNodes>
          <leafValues>
            -1. 4.8726832866668701e-01</leafValues></_></weakClassifiers></_>
    <!-- stage 2 -->
    <_>
      <maxWeakCount>2</maxWeakCount>
      <stageThreshold>-3.5292342305183411e-01</stageThreshold>
      <weakClassifiers>
        <_>
          <internalNodes>
            0 -1 29 1.5000187791883945e-02</internalNodes>
          <leafValues>
            -8.9690721035003662e-01 7.2881358861923218e-01</leafValues></_>
        <_>
          <internalNodes>
            0 -1 5 -5.5088968947529793e-03</internalNodes>
          <leafValues>
            5.4398381710052490e-01 -9.5659446716308594e-01</leafValues></_></weakClassifiers></_>
    <!-- stage 3 -->
    <_>
      <maxWeakCount>2</maxWeakCount>
      <stageThreshold>-3.5931271314620972e-01</stageThreshold>
      <weakClassifiers>
        <_>
          <internalNodes>
            0 -1 16 -1.9247420132160187e-02</internalNodes>
          <leafValues>
            5.9375000000000000e-01 -8.9130437374114990e-01</leafValues></_>
        <_>
          <internalNodes>
            0 -1 22 2.3620830848813057e-02</internalNodes>
          <leafValues>
            -9.1124159097671509e-01 5.3199160099029541e-01</leafValues></_></weakClassifiers></_>
    <!-- stage 4 -->
    <_>
      <maxWeakCount>1</maxWeakCount>
      <stageThreshold>4.3589743971824646e-01</stageThreshold>
      <weakClassifiers>
        <_>
          <internalNodes>
            0 -1 15 -1.7193903028964996e-01</internalNodes>
          <leafValues>
            4.3589743971824646e-01 -1.</leafValues></_></weakClassifiers></_>
    <!-- stage 5 -->
    <_>
      <maxWeakCount>2</maxWeakCount>
      <stageThreshold>-3.7658771872520447e-01</stageThreshold>
      <weakClassifiers>
        <_>
          <internalNodes>
            0 -1 0 -6.4635500311851501e-02</internalNodes>
          <leafValues>
            -9.7916668653488159e-01 8.3333331346511841e-01</leafValues></_>
        <_>
          <internalNodes>
            0 -1 12 -1.4190182089805603e-01</internalNodes>
          <leafValues>
            -9.7887414693832397e-01 6.0257893800735474e-01</leafValues></_></weakClassifiers></_>
    <!-- stage 6 -->
    <_>
      <maxWeakCount>2</maxWeakCount>
      <stageThreshold>-3.1978639960289001e-01</stageThreshold>
      <weakClassifiers>
        <_>
          <internalNodes>
            0 -1 18 -2.0460574887692928e-03</internalNodes>
          <leafValues>
            -8.1250000000000000e-01 5.6666666269302368e-01</leafValues></_>
        <_>
          <internalNodes>
            0 -1 2 -1.5177186578512192e-02</internalNodes>
          <leafValues>
            4.9271360039710999e-01 -8.4388136863708496e-01</leafValues></_></weakClassifiers></_>
    <!-- stage 7 -->
    <_>
      <maxWeakCount>2</maxWeakCount>
      <stageThreshold>-1.3157165050506592e-01</stageThreshold>
      <weakClassifiers>
        <_>
          <internalNodes>
            0 -1 30 2.2349502891302109e-02</internalNodes>
          <leafValues>
            -6.5765768289566040e-01 6.4444446563720703e-01</leafValues></_>
        <_>
          <internalNodes>
            0 -1 25 2.6065822690725327e-02</internalNodes>
          <leafValues>
            -7.7601611614227295e-01 5.8720368146896362e-01</leafValues></_></weakClassifiers></_>
    <!-- stage 8 -->
    <_>
      <maxWeakCount>3</maxWeakCount>
      <stageThreshold>-9.5619803667068481e-01</stageThreshold>
      <weakClassifiers>
        <_>
          <internalNodes>
            0 -1 14 -9.4446223229169846e-03</internalNodes>
          <leafValues>
            6.0784316062927246e-01 -7.1428573131561279e-01</leafValues></_>
        <_>
          <internalNodes>
            0 -1 28 -6.4213951118290424e-03</internalNodes>
          <leafValues>
            5.8380138874053955e-01 -6.2340301275253296e-01</leafValues></_>
        <_>
          <internalNodes>
            0 -1 13 9.2481993138790131e-02</internalNodes>
          <leafValues>
            3.8149064779281616e-01 -9.7766715288162231e-01</leafValues></_></weakClassifiers></_>
    <!-- stage 9 -->
    <_>
      <maxWeakCount>4</maxWeakCount>
      <stageThreshold>-7.9803270101547241e-01</stageThreshold>
      <weakClassifiers>
        <_>
          <internalNodes>
            0 -1 27 -2.7068727649748325e-03</internalNodes>
          <leafValues>
            7.2222220897674561e-01 -5.8333331346511841e-01</leafValues></_>
        <_>
          <internalNodes>
            0 -1 32 -2.0315216388553381e-03</internalNodes>
          <leafValues>
            3.1533485651016235e-01 -9.7046720981597900e-01</leafValues></_>
        <_>
          <internalNodes>
            0 -1 7 1.0808018967509270e-02</internalNodes>
          <leafValues>
            -8.3653724193572998e-01 3.4875354170799255e-01</leafValues></_>
        <_>
          <internalNodes>
            0 -1 1 -5.6072764098644257e-02</internalNodes>
          <leafValues>
            -1. 3.0650308728218079e-01</leafValues></_></weakClassifiers></_>
    <!-- stage 10 -->
    <_>
      <maxWeakCount>4</maxWeakCount>
      <stageThreshold>-1.3550275564193726e+00</stageThreshold>
      <weakClassifiers>
        <_>
          <internalNodes>
            0 -1 19 -2.1201618015766144e-02</internalNodes>
          <leafValues>
            7.5757575035095215e-01 -5.6097561120986938e-01</leafValues></_>
        <_>
          <internalNodes>
            0 -1 26 -2.2834457457065582e-02</internalNodes>
          <leafValues>
            4.3370246887207031e-01 -7.9988098144531250e-01</leafValues></_>
        <_>
          <internalNodes>
            0 -1 33 -4.4181071221828461e-02</internalNodes>
          <leafValues>
            -7.6591861248016357e-01 3.5396572947502136e-01</leafValues></_>
        <_>
          <internalNodes>
            0 -1 9 5.5198110640048981e-03</internalNodes>
          <leafValues>
            -4.6183583140373230e-01 7.1281999349594116e-01</leafValues></_></weakClassifiers></_>
    <!-- stage 11 -->
    <_>
      <maxWeakCount>4</maxWeakCount>
      <stageThreshold>-5.8271652460098267e-01</stageThreshold>
      <weakClassifiers>
        <_>
          <internalNodes>
            0 -1 20 -4.3869647197425365e-03</internalNodes>
          <leafValues>
            5.8974361419677734e-01 -5.7264959812164307e-01</leafValues></_>
        <_>
          <internalNodes>
            0 -1 3 -6.8097021430730820e-03</internalNodes>
          <leafValues>
            3.1656304001808167e-01 -9.3851506710052490e-01</leafValues></_>
        <_>
          <internalNodes>
            0 -1 10 2.3837662301957607e-03</internalNodes>
          <leafValues>
            -7.4949973821640015e-01 3.6144632101058960e-01</leafValues></_>
        <_>
          <internalNodes>
            0 -1 21 -9.6670573111623526e-04</internalNodes>
          <leafValues>
            6.8849569559097290e-01 -5.9539139270782471e-01</leafValues></_></weakClassifiers></_>
    <!-- stage 12 -->
    <_>
      <maxWeakCount>2</maxWeakCount>
      <stageThreshold>-1.3790425658226013e-01</stageThreshold>
      <weakClassifiers>
        <_>
          <internalNodes>
            0 -1 17 -1.2602581409737468e-03</internalNodes>
          <leafValues>
            9.2592591047286987e-01 -5.3488373756408691e-01</leafValues></_>
        <_>
          <internalNodes>
            0 -1 4 3.3139772713184357e-03</internalNodes>
          <leafValues>
            3.9697948098182678e-01 -8.3533805608749390e-01</leafValues></_></weakClassifiers></_>
    <!-- stage 13 -->
    <_>
      <maxWeakCount>4</maxWeakCount>
      <stageThreshold>-7.6059925556182861e-01</stageThreshold>
      <weakClassifiers>
        <_>
          <internalNodes>
            0 -1 23 -1.7547231167554855e-02</internalNodes>
          <leafValues>
            5.6097561120986938e-01 -5.8260869979858398e-01</leafValues></_>
        <_>
          <internalNodes>
            0 -1 34 -2.5696218945086002e-03</internalNodes>
          <leafValues>
            -8.3357542753219604e-01 3.4684023261070251e-01</leafValues></_>
        <_>
          <internalNodes>
            0 -1 8 -1.3725500553846359e-02</internalNodes>
          <leafValues>
            3.0924490094184875e-01 -8.9925199747085571e-01</leafValues></_>
        <_>
          <internalNodes>
            0 -1 24 1.8357932567596436e-02</internalNodes>
          <leafValues>
            -8.0950397253036499e-01 3.7442117929458618e-01</leafValues></_></weakClassifiers></_></stages>
  <features>
    <_>
      <rects>
        <_>
          0 6 4 6 -1.</_>
        <_>
          0 8 4 2 2.</_></rects>
      <tilted>0</tilted></_>
    <_>
      <rects>
        <_>
          0 12 24 6 -1.</_>
        <_>
          12 12 12 6 2.</_></rects>
      <tilted>0</tilted></_>
    <_>
      <rects>
        <_>
          0 12 21 4 -1.</_>
        <_>
          0 14 21 2 2.</_></rects>
      <tilted>0</tilted></_>
    <_>
      <rects>
        <_>
          0 13 16 3 -1.</_>
        <_>
          8 13 8 3 2.</_></rects>
      <tilted>0</tilted></_>
    <_>
      <rects>
        <_>
          1 5 6 5 -1.</_>
        <_>
          4 5 3 5 2.</_></rects>
      <tilted>0</tilted></_>
    <_>
      <rects>
        <_>
          1 12 16 4 -1.</_>
        <_>
          9 12 8 4 2.</_></rects>
      <tilted>0</tilted></_>
    <_>
      <rects>
        <_>
          2 4 18 20 -1.</_>
        <_>
          2 14 18 10 2.</_></rects>
      <tilted>0</tilted></_>
    <_>
      <rects>
        <_>
          2 12 16 12 -1.</_>
        <_>
          2 12 8 6 2.</_>
        <_>
          10 18 8 6 2.</_></rects>
      <tilted>0</tilted></_>
    <_>
      <rects>
        <_>
          4 2 16 18 -1.</_>
        <_>
          12 2 8 18 2.</_></rects>
      <tilted>0</tilted></_>
    <_>
      <rects>
        <_>
          5 10 6 2 -1.</_>
        <_>
          8 10 3 2 2.</_></rects>
      <tilted>0</tilted></_>
    <_>
      <rects>
        <_>
          5 19 15 4 -1.</_>
        <_>
          5 21 15 2 2.</_></rects>
      <tilted>0</tilted></_>
    <_>
      <rects>
        <_>
          6 2 6 22 -1.</_>
        <_>
          6 13 6 11 2.</_></rects>
      <tilted>0</tilted></_>
    <_>
      <rects>
        <_>
          6 4 5 12 -1.</_>
        <_>
          6 8 5 4 2.</_></rects>
      <tilted>0</tilted></_>
    <_>
      <rects>
        <_>
          6 13 18 11 -1.</_>
        <_>
          15 13 9 11 2.</_></rects>
      <tilted>0</tilted></_>
    <_>
      <rects>
        <_>
          7 2 6 4 -1.</_>
        <_>
          7 4 6 2 2.</_></rects>
      <tilted>0</tilted></_>
    <_>
      <rects>
        <_>
          7 2 17 6 -1.</_>
        <_>
          7 4 17 2 2.</_></rects>
      <tilted>0</tilted></_>
    <_>
      <rects>
        <_>
          8 1 10 3 -1.</_>
        <_>
          13 1 5 3 2.</_></rects>
      <tilted>0</tilted></_>
    <_>
      <rects>
        <_>
          8 8 2 2 -1.</_>
        <_>
          8 8 1 1 2.</_>
        <_>
          9 9 1 1 2.</_></rects>
      <tilted>0</tilted></_>
    <_>
      <rects>
        <_>
          9 2 8 10 -1.</_>
        <_>
          9 7 8 5 2.</_></rects>
      <tilted>0</tilted></_>
    <_>
      <rects>
        <_>
          10 2 1 6 -1.</_>
        <_>
          10 4 1 2 2.</_></rects>
      <tilted>0</tilted></_>
    <_>
      <rects>
        <_>
          10 3 3 2 -1.</_>
        <_>
          10 4 3 1 2.</_></rects>
      <tilted>0</tilted></_>
    <_>
      <rects>
        <_>
          10 6 2 4 -1.</_>
        <_>
          10 6 1 2 2.</_>
        <_>
          11 8 1 2 2.</_></rects>
      <tilted>0</tilted></_>
    <_>
      <rects>
        <_>
          10 12 14 7 -1.</_>
        <_>
          17 12 7 7 2.</_></rects>
      <tilted>0</tilted></_>
    <_>
      <rects>
        <_>
          11 2 6 2 -1.</_>
        <_>
          14 2 3 2 2.</_></rects>
      <tilted>0</tilted></_>
    <_>
      <rects>
        <_>
          12 1 12 3 -1.</_>
        <_>
          18 1 6 3 2.</_></rects>
      <tilted>0</tilted></_>
    <_>
      <rects>
        <_>
          12 5 8 12 -1.</_>
        <_>
          12 5 4 6 2.</_>
        <_>
          16 11 4 6 2.</_></rects>
      <tilted>0</tilted></_>
    <_>
      <rects>
        <_>
          12 12 12 12 -1.</_>
        <_>
          12 12 6 6 2.</_>
        <_>
          18 18 6 6 2.</_></rects>
      <tilted>0</tilted></_>
    <_>
      <rects>
        <_>
          14 0 2 2 -1.</_>
        <_>
          14 1 2 1 2.</_></rects>
      <tilted>0</tilted></_>
    <_>
      <rects>
        <_>
          14 0 6 4 -1.</_>
        <_>
          14 2 6 2 2.</_></rects>
      <tilted>0</tilted></_>
    <_>
      <rects>
        <_>
          14 1 8 3 -1.</_>
        <_>
          18 1 4 3 2.</_></rects>
      <tilted>0</tilted></_>
    <_>
      <rects>
        <_>
          14 2 8 2 -1.</_>
        <_>
          18 2 4 2 2.</_></rects>
      <tilted>0</tilted></_>
    <_>
      <rects>
        <_>
          15 3 8 1 -1.</_>
        <_>
          19 3 4 1 2.</_></rects>
      <tilted>0</tilted></_>
    <_>
      <rects>
        <_>
          17 3 6 14 -1.</_>
        <_>
          17 3 3 7 2.</_>
        <_>
          20 10 3 7 2.</_></rects>
      <tilted>0</tilted></_>
    <_>
      <rects>
        <_>
          17 9 7 14 -1.</_>
        <_>
          17 16 7 7 2.</_></rects>
      <tilted>0</tilted></_>
    <_>
      <rects>
        <_>
          21 2 2 18 -1.</_>
        <_>
          21 2 1 9 2.</_>
        <_>
          22 11 1 9 2.</_></rects>
      <tilted>0</tilted></_></features></cascade>
</opencv_storage>
